-8
15
3
2
5
10
2
8
7
-6
7
-4
8
3
4
5
7
5
12
15
1
-3
5
7
-3
-3
10
-1
-2
12
-1
3
10
1
15
-7
5
7
11
14
9
-3
6
3
-5
-2
13
11
-2
-2
3
-5
8
-1
2
-5
12
9
6
12
-1
-2
14
13
13
6
-1
-7
1
15
11
5
15
11
-7
-3
9
-4
10
2
9
-5
5
13
11
14
14
6
-4
11
3
6
-8
-2
4
-6
13
-6
-3
-5
4
-8
5
-3
-2
3
14
13
-2
-5
-2
6
-7
-7
7
-1
2
12
11
-5
11
7
1
2
-6
-2
14
-7
7
10
4
13
-7
10
-4
-6
8
6
-5
-2
10
11
9
2
-5
8
12
-7
-7
12
11
2
-2
-2
3
14
13
6
2
2
12
6
11
-1
-8
15
-6
-8
-4
-2
15
8
13
6
15
-3
-1
-5
-6
-3
-8
-7
2
-1
-8
-3
-5
10
-7
-8
2
-6
-7
6
4
6
10
-8
-5
-2
10
11
7
-2
-3
8
4
1
-5
-6
1
-1
11
15
2
-7
3
12
12
-5
11
-3
-8
3
15
-6
-4
14
-4
14
-1
8
5
-3
4
9
7
13
13
-7
8
-2
13
13
-8
8
-8
4
12
6
1
14
2
6
7
-6
-5
5
-4
15
-2
15
-2
-7
2
1
9
-1
-3
-2
11
5
12
-2
4
-7
14
2
11
5
-5
12
8
0
-2
13
-2
15
1
1
4
13
8
-7
2
1
6
8
-2
3
3
15
-5
-7
3
10
4
2
4
14
-3
14
-7
9
5
6
-4
13
2
-7
8
12
15
12
-1
-3
-4
2
11
1
1
3
14
15
1
6
15
5
-3
-7
11
7
9
6
5
13
12
2
3
-2
3
-2
0
-7
14
10
-4
13
-8
7
-1
3
10
12
-5
14
-7
13
9
10
14
6
2
2
1
4
-4
7
5
13
-1
6
14
3
8
2
-7
3
6
-6
2
2
3
-8
12
6
15
15
-5
8
5
10
9
-4
-5
-4
7
-1
4
-5
10
9
12
4
0
-6
13
12
14
15
-7
7
2
10
14
2
-2
8
5
5
12
-6
-3
-5
9
8
3
-2
14
6
10
3
-7
-1
0
14
12
-6
3
-6
12
9
6
-4
-5
-1
6
15
4
13
12
11
-2
-4
15
-1
6
6
2
2
-4
-3
4
-8
13
0
1
-7
-8
13
15
12
9
3
1
-6
6
1
-3
6
11
2
-8
3
9
-4
6
4
-1
10
10
13
6
-1
5
12
-4
-7
-5
9
14
-8
-8
9
13
-8
2
8
-4
-1
-6
2
9
-3
3
3
5
-8
12
-6
10
13
-1
-2
-4
3
11
-2
8
11
8
13
-4
3
0
-1
-5
15
-6
2
3
12
7
-1
3
14
-2
-2
12
14
-6
9
-1
3
15
14
-4
8
15
-1
0
