-22 000000
12 0000010
32 0000011
57 00001000
36 00001001
-23 00001010
-21 00001011
21 0000110
-39 0000111
-45 0001000
26 00010010
-36 00010011
54 0001010
-61 0001011
-30 0001100
-9 0001101
44 000111
-26 001000
35 001001
68 00101000
55 00101001
-76 00101010
-87 00101011
-52 0010110
-70 00101110
3 00101111
61 00110000
-8 00110001
-12 00110010
-62 00110011
-25 001101
-38 001110
52 00111100
59 00111101
7 00111110
58 00111111
34 010000
4 0100010
-40 0100011
-41 0100100
51 01001010
-20 01001011
56 01001100
47 01001101
-13 01001110
-63 01001111
-16 0101000
9 0101001
22 0101010
-59 0101011
-46 01011000
-6 01011001
-49 0101101
38 0101110
25 0101111
-27 011000
43 0110010
29 0110011
53 01101000
-1 01101001
-10 01101010
-2 01101011
-34 0110110
30 0110111
-17 0111000
15 0111001
37 01110100
-95 01110101
-48 01110110
-15 01110111
-67 01111000
46 01111001
16 01111010
-69 01111011
-56 0111110
62 01111110
-44 01111111
0 10
27 110000
-33 110001
-37 110010
-4 1100110
19 1100111
17 1101000
-50 1101001
-19 1101010
20 1101011
-29 1101100
-43 1101101
-42 1101110
50 1101111
-31 111000
-35 1110010
-5 1110011
24 1110100
28 1110101
40 111011
-28 1111000
31 1111001
-24 1111010
-64 1111011
33 1111100
-47 1111101
23 1111110
41 1111111
